<?xml version="1.0"?>
<opencv_storage>
<stage9>
  <maxWeakCount>36</maxWeakCount>
  <stageThreshold>-8.9539021253585815e-01</stageThreshold>
  <weakClassifiers>
    <_>
      <internalNodes>
        0 -1 6488 -6.7106760106980801e-03</internalNodes>
      <leafValues>
        7.5401461124420166e-01 1.6457399725914001e-01</leafValues></_>
    <_>
      <internalNodes>
        0 -1 98008 7.1473121643066406e-03</internalNodes>
      <leafValues>
        -1.6648873686790466e-01 4.4535943865776062e-01</leafValues></_>
    <_>
      <internalNodes>
        0 -1 19404 6.7534953355789185e-02</internalNodes>
      <leafValues>
        -1.0720971226692200e-01 6.0317790508270264e-01</leafValues></_>
    <_>
      <internalNodes>
        0 -1 62161 1.2215854600071907e-02</internalNodes>
      <leafValues>
        -1.3265602290630341e-01 5.3209495544433594e-01</leafValues></_>
    <_>
      <internalNodes>
        0 -1 93045 -2.2870300337672234e-02</internalNodes>
      <leafValues>
        4.0483814477920532e-01 -1.6551235318183899e-01</leafValues></_>
    <_>
      <internalNodes>
        0 -1 7602 2.2411714307963848e-03</internalNodes>
      <leafValues>
        -1.5453663468360901e-01 3.6263012886047363e-01</leafValues></_>
    <_>
      <internalNodes>
        0 -1 85004 -4.0456667542457581e-02</internalNodes>
      <leafValues>
        4.9230390787124634e-01 -1.2081295996904373e-01</leafValues></_>
    <_>
      <internalNodes>
        0 -1 26093 3.3613521605730057e-02</internalNodes>
      <leafValues>
        -9.7564294934272766e-02 4.5579823851585388e-01</leafValues></_>
    <_>
      <internalNodes>
        0 -1 1839 -4.8467848449945450e-02</internalNodes>
      <leafValues>
        4.9459511041641235e-01 -1.1140720546245575e-01</leafValues></_>
    <_>
      <internalNodes>
        0 -1 9111 1.0988350026309490e-02</internalNodes>
      <leafValues>
        -9.9830418825149536e-02 4.0781065821647644e-01</leafValues></_>
    <_>
      <internalNodes>
        0 -1 20796 7.2131548076868057e-03</internalNodes>
      <leafValues>
        -1.0996811091899872e-01 3.6699464917182922e-01</leafValues></_>
    <_>
      <internalNodes>
        0 -1 9932 -7.6570035889744759e-03</internalNodes>
      <leafValues>
        4.2159122228622437e-01 -1.0539736598730087e-01</leafValues></_>
    <_>
      <internalNodes>
        0 -1 19782 -1.1985773220658302e-02</internalNodes>
      <leafValues>
        -7.2947728633880615e-01 6.3839882612228394e-02</leafValues></_>
    <_>
      <internalNodes>
        0 -1 73047 -3.6603119224309921e-02</internalNodes>
      <leafValues>
        1.5170373022556305e-01 -2.7519193291664124e-01</leafValues></_>
    <_>
      <internalNodes>
        0 -1 19750 1.4215802773833275e-02</internalNodes>
      <leafValues>
        4.8703502863645554e-02 -8.6481887102127075e-01</leafValues></_>
    <_>
      <internalNodes>
        0 -1 89589 2.0972257480025291e-03</internalNodes>
      <leafValues>
        -1.8453536927700043e-01 2.1933883428573608e-01</leafValues></_>
    <_>
      <internalNodes>
        0 -1 88381 -3.6549277603626251e-02</internalNodes>
      <leafValues>
        4.2481234669685364e-01 -1.0044474154710770e-01</leafValues></_>
    <_>
      <internalNodes>
        0 -1 4692 -3.4400910139083862e-02</internalNodes>
      <leafValues>
        3.0338644981384277e-01 -1.2650498747825623e-01</leafValues></_>
    <_>
      <internalNodes>
        0 -1 8551 -9.4897951930761337e-03</internalNodes>
      <leafValues>
        -5.4633343219757080e-01 7.2827614843845367e-02</leafValues></_>
    <_>
      <internalNodes>
        0 -1 96354 3.8705701008439064e-03</internalNodes>
      <leafValues>
        -1.1743183434009552e-01 3.2569977641105652e-01</leafValues></_>
    <_>
      <internalNodes>
        0 -1 68002 -3.4323483705520630e-03</internalNodes>
      <leafValues>
        -4.2060124874114990e-01 9.5387436449527740e-02</leafValues></_>
    <_>
      <internalNodes>
        0 -1 84318 1.7276564612984657e-03</internalNodes>
      <leafValues>
        -1.4841701090335846e-01 2.5189074873924255e-01</leafValues></_>
    <_>
      <internalNodes>
        0 -1 52547 1.3789425604045391e-02</internalNodes>
      <leafValues>
        -9.3937925994396210e-02 4.0100041031837463e-01</leafValues></_>
    <_>
      <internalNodes>
        0 -1 98949 -5.0480579957365990e-03</internalNodes>
      <leafValues>
        -4.1685453057289124e-01 8.8981233537197113e-02</leafValues></_>
    <_>
      <internalNodes>
        0 -1 67161 2.0140264183282852e-02</internalNodes>
      <leafValues>
        -6.7125611007213593e-02 4.9268382787704468e-01</leafValues></_>
    <_>
      <internalNodes>
        0 -1 47434 1.8136593699455261e-01</internalNodes>
      <leafValues>
        -1.0118129849433899e-01 3.6559388041496277e-01</leafValues></_>
    <_>
      <internalNodes>
        0 -1 65596 -1.4972352422773838e-02</internalNodes>
      <leafValues>
        5.9961795806884766e-01 -5.4110020399093628e-02</leafValues></_>
    <_>
      <internalNodes>
        0 -1 10608 8.0392388626933098e-03</internalNodes>
      <leafValues>
        7.8942142426967621e-02 -4.6188902854919434e-01</leafValues></_>
    <_>
      <internalNodes>
        0 -1 58641 -8.9498031884431839e-03</internalNodes>
      <leafValues>
        -7.2507935762405396e-01 4.1797418147325516e-02</leafValues></_>
    <_>
      <internalNodes>
        0 -1 48047 2.5804042816162109e-03</internalNodes>
      <leafValues>
        -1.0813792049884796e-01 3.4535190463066101e-01</leafValues></_>
    <_>
      <internalNodes>
        0 -1 56388 6.5759010612964630e-03</internalNodes>
      <leafValues>
        -8.8224455714225769e-02 3.9440491795539856e-01</leafValues></_>
    <_>
      <internalNodes>
        0 -1 74459 -2.0993361249566078e-03</internalNodes>
      <leafValues>
        -6.9129443168640137e-01 5.7792335748672485e-02</leafValues></_>
    <_>
      <internalNodes>
        0 -1 37377 3.2871859148144722e-03</internalNodes>
      <leafValues>
        -1.1161495745182037e-01 3.7920194864273071e-01</leafValues></_>
    <_>
      <internalNodes>
        0 -1 33945 2.5389632210135460e-03</internalNodes>
      <leafValues>
        -1.2589256465435028e-01 2.7450180053710938e-01</leafValues></_>
    <_>
      <internalNodes>
        0 -1 61000 9.5945904031395912e-03</internalNodes>
      <leafValues>
        -1.0359390825033188e-01 3.4625762701034546e-01</leafValues></_>
    <_>
      <internalNodes>
        0 -1 72803 1.8868641927838326e-03</internalNodes>
      <leafValues>
        -1.1159501224756241e-01 3.2659989595413208e-01</leafValues></_></weakClassifiers></stage9>
</opencv_storage>
