<?xml version="1.0"?>
<opencv_storage>
<stage0>
  <maxWeakCount>12</maxWeakCount>
  <stageThreshold>-8.1217759847640991e-01</stageThreshold>
  <weakClassifiers>
    <_>
      <internalNodes>
        0 -1 73051 -2.1154109388589859e-02</internalNodes>
      <leafValues>
        8.0561417341232300e-01 -5.4329931735992432e-02</leafValues></_>
    <_>
      <internalNodes>
        0 -1 36402 4.9498520791530609e-02</internalNodes>
      <leafValues>
        -2.2737683355808258e-01 6.0945779085159302e-01</leafValues></_>
    <_>
      <internalNodes>
        0 -1 3221 -1.5064574778079987e-02</internalNodes>
      <leafValues>
        7.4056822061538696e-01 -1.8133153021335602e-01</leafValues></_>
    <_>
      <internalNodes>
        0 -1 4747 2.4661596864461899e-02</internalNodes>
      <leafValues>
        -2.6746916770935059e-01 5.2940404415130615e-01</leafValues></_>
    <_>
      <internalNodes>
        0 -1 87174 -3.4242864698171616e-02</internalNodes>
      <leafValues>
        6.8536019325256348e-01 -1.8400609493255615e-01</leafValues></_>
    <_>
      <internalNodes>
        0 -1 66600 -1.2739321682602167e-03</internalNodes>
      <leafValues>
        2.7857494354248047e-01 -4.6243241429328918e-01</leafValues></_>
    <_>
      <internalNodes>
        0 -1 9107 9.7352210432291031e-03</internalNodes>
      <leafValues>
        -1.9432394206523895e-01 6.2773907184600830e-01</leafValues></_>
    <_>
      <internalNodes>
        0 -1 20772 5.4406034760177135e-03</internalNodes>
      <leafValues>
        -1.7138773202896118e-01 6.4776015281677246e-01</leafValues></_>
    <_>
      <internalNodes>
        0 -1 32331 1.0981499217450619e-02</internalNodes>
      <leafValues>
        -1.1950908601284027e-01 6.7923986911773682e-01</leafValues></_>
    <_>
      <internalNodes>
        0 -1 33657 -3.4484677016735077e-03</internalNodes>
      <leafValues>
        4.7443953156471252e-01 -2.0387609302997589e-01</leafValues></_>
    <_>
      <internalNodes>
        0 -1 6392 -9.6757486462593079e-03</internalNodes>
      <leafValues>
        -7.3157018423080444e-01 1.3282826542854309e-01</leafValues></_>
    <_>
      <internalNodes>
        0 -1 79253 1.3926003128290176e-02</internalNodes>
      <leafValues>
        -2.4609002470970154e-01 3.8002961874008179e-01</leafValues></_></weakClassifiers></stage0>
</opencv_storage>
